{
  "selected_features": [
    "dur",
    "rate",
    "proto",
    "dpkts",
    "sttl",
    "dwin",
    "dttl",
    "smean",
    "sbytes"
  ],
  "feature_map": [
    8,
    9,
    0,
    5,
    1,
    14,
    12,
    10,
    2
  ],
  "feature_mask": 511,
  "layer_0": {
    "weights": [
      [
        249,
        -63,
        337,
        786,
        -110,
        -120,
        806,
        390,
        -242,
        271,
        -235,
        -243,
        124,
        -975,
        -884,
        -288,
        -518,
        160,
        -473,
        -723,
        752,
        -115,
        41,
        -731,
        -278,
        44,
        -604,
        196,
        -307,
        -143,
        -308,
        948
      ],
      [
        -27,
        -570,
        640,
        -599,
        304,
        -1003,
        -684,
        133,
        204,
        -3,
        -140,
        -109,
        -756,
        -440,
        -177,
        374,
        257,
        -868,
        84,
        -255,
        -337,
        276,
        728,
        109,
        -374,
        -98,
        -87,
        486,
        -309,
        -56,
        -566,
        -612
      ],
      [
        503,
        796,
        -289,
        604,
        382,
        -328,
        154,
        820,
        -125,
        904,
        -1320,
        178,
        49,
        -388,
        35,
        -1050,
        -258,
        171,
        670,
        -277,
        -414,
        -585,
        283,
        495,
        -230,
        620,
        552,
        390,
        -425,
        -448,
        -201,
        -749
      ],
      [
        210,
        134,
        -101,
        -121,
        -686,
        -215,
        -175,
        -401,
        108,
        311,
        998,
        366,
        132,
        -38,
        -933,
        1,
        2,
        1333,
        157,
        146,
        118,
        -847,
        543,
        456,
        376,
        -492,
        393,
        -820,
        258,
        1285,
        -507,
        -290
      ],
      [
        62,
        -381,
        -857,
        71,
        -807,
        246,
        -471,
        769,
        -567,
        60,
        292,
        -726,
        126,
        658,
        -866,
        -35,
        147,
        346,
        -554,
        -680,
        147,
        152,
        137,
        360,
        -375,
        406,
        546,
        -393,
        975,
        155,
        -610,
        338
      ],
      [
        -499,
        403,
        594,
        -420,
        494,
        211,
        421,
        971,
        -126,
        -387,
        -456,
        -417,
        -39,
        175,
        142,
        423,
        7,
        744,
        -136,
        1393,
        320,
        -439,
        -548,
        246,
        -114,
        365,
        241,
        -37,
        -434,
        -775,
        -229,
        438
      ],
      [
        151,
        -638,
        -26,
        203,
        -491,
        79,
        30,
        -576,
        569,
        138,
        539,
        898,
        -705,
        -480,
        359,
        235,
        235,
        2000,
        539,
        452,
        493,
        303,
        -203,
        308,
        -332,
        -218,
        -377,
        -14,
        1134,
        -943,
        351,
        -826
      ],
      [
        -342,
        476,
        83,
        -557,
        -409,
        351,
        -375,
        153,
        11,
        -486,
        1121,
        434,
        -1037,
        92,
        -144,
        415,
        -387,
        -72,
        396,
        454,
        -649,
        -133,
        -200,
        -481,
        986,
        107,
        -800,
        442,
        1069,
        533,
        -778,
        -248
      ],
      [
        628,
        -368,
        265,
        388,
        -465,
        -30,
        -1660,
        -546,
        -15,
        -631,
        806,
        -495,
        -225,
        66,
        931,
        -735,
        614,
        16,
        -352,
        254,
        124,
        -340,
        72,
        -205,
        34,
        140,
        595,
        -680,
        1087,
        -925,
        -78,
        301
      ]
    ],
    "biases": [
      -136,
      73,
      358,
      113,
      317,
      3,
      -31,
      -37,
      -189,
      -220,
      -85,
      -64,
      9,
      -12,
      26,
      -168,
      124,
      -16,
      -202,
      -58,
      1,
      27,
      346,
      -485,
      58,
      -169,
      -487,
      63,
      -40,
      112,
      0,
      2
    ]
  },
  "layer_1": {
    "weights": [
      426,
      -536,
      -768,
      -400,
      -861,
      436,
      165,
      403,
      775,
      564,
      316,
      718,
      -425,
      -491,
      626,
      9,
      -316,
      440,
      647,
      120,
      302,
      -783,
      -448,
      881,
      470,
      761,
      945,
      -332,
      -244,
      -628,
      166,
      -68
    ],
    "biases": [
      -268427
    ]
  },
  "decision": {
    "threshold": -420650
  }
}
